<?xml version="1.0"?>
<opencv_storage>
<opencv_ml_lr>
  <format>3</format>
  <classifier>"Logisitic Regression Classifier"</classifier>
  <alpha>1.0000000000000000e-03</alpha>
  <iterations>10</iterations>
  <norm>1</norm>
  <train_method>0</train_method>
  <learnt_thetas type_id="opencv-matrix">
    <rows>1</rows>
    <cols>785</cols>
    <dt>f</dt>
    <data>
      6.91456080e-06 0. 0. 0. 0. 0. 0. 0. 0. 0. 0. 0. 0. 0. 0.
      -1.87040569e-04 0. 0. 0. 0. 0. 0. 0. 0. 0. 0. 0. 0. 0. 0. 0. 0. 0.
      0. 0. 0. 0. 0. -1.87040569e-04 -1.87040569e-04 -1.87040569e-04
      -1.87040569e-04 -1.87040569e-04 -1.87040569e-04 -1.87040569e-04
      -1.87040569e-04 -1.87040569e-04 -1.87040569e-04 0. 0. 0. 0. 0. 0.
      0. 0. 0. 0. 0. 0. 0. 0. 0. 0. -1.87040569e-04 -1.87040569e-04
      -1.87040569e-04 -1.87040569e-04 -1.87040569e-04 -1.87040569e-04
      -3.73290561e-04 -5.59541455e-04 -5.59541455e-04 -7.45791767e-04
      -3.73290561e-04 -3.73290561e-04 -1.87040569e-04 0. 0. 0. 0. 0. 0.
      0. 0. 0. 0. 0. 0. 0. 0. -1.87040569e-04 -1.87040569e-04
      -1.87040569e-04 0. -1.86249992e-04 -7.45019061e-04 -9.31270071e-04
      -1.30377198e-03 -1.30377198e-03 -1.11752015e-03 -9.31252143e-04
      -7.45002122e-04 -7.45791767e-04 -7.45791767e-04 -5.59540698e-04
      -3.73290648e-04 0. 0. 0. 0. 0. 0. 0. 0. 0. 0. 0. -1.87040569e-04
      -1.87040569e-04 -1.87040569e-04 0. -3.72517999e-04 -1.30377233e-03
      -1.49002415e-03 -1.49002415e-03 -1.49002415e-03 -1.30377326e-03
      -1.30377326e-03 -1.30377326e-03 -1.49002415e-03 -1.30377198e-03
      -9.31252143e-04 -7.45791767e-04 -7.45791767e-04 -3.72500072e-04 0.
      0. 0. 0. 0. 0. 0. 0. 0. -1.87040569e-04 -1.87040569e-04 0.
      -1.86249992e-04 -9.31270188e-04 -1.30377233e-03 -1.49002415e-03
      -1.49003277e-03 -1.30378187e-03 -1.11753086e-03 -7.45028781e-04
      -9.31280782e-04 -1.11754867e-03 -1.11754867e-03 -1.30379968e-03
      -1.30377326e-03 -1.11750409e-03 -1.30454474e-03 -7.45791767e-04
      -3.72500072e-04 -1.86250094e-04 0. 0. 0. 0. 0. 0. -1.87040569e-04
      -1.87040569e-04 0. -1.86249992e-04 -9.31270188e-04 -1.49002415e-03
      -1.49003277e-03 -1.11752958e-03 -5.58776606e-04 -3.72526498e-04
      -3.72526498e-04 -1.86276506e-04 -1.86276506e-04 -3.72526498e-04
      -5.58778644e-04 -7.45046593e-04 -9.31298535e-04 -9.31273098e-04
      -1.11750409e-03 -1.30454474e-03 -7.45791767e-04 -1.86250094e-04 0.
      0. 0. 0. 0. 0. 6.24721579e-04 6.24721579e-04 6.25512039e-04
      -1.19508128e-04 -4.92010207e-04 -6.78270648e-04 6.67335771e-05
      6.25485554e-04 6.25485554e-04 6.25485554e-04 6.25485554e-04
      6.25485554e-04 6.25485554e-04 6.25485554e-04 6.25485554e-04
      6.25485554e-04 2.52965459e-04 6.67154527e-05 6.67314816e-05
      6.67591521e-05 -1.30454474e-03 2.53011007e-04 6.25511981e-04
      8.11762118e-04 0. 8.11762118e-04 8.11762118e-04 6.24721579e-04
      6.24721579e-04 6.25512039e-04 2.52994156e-04 -4.92010207e-04
      -6.78270648e-04 6.67335771e-05 6.25485554e-04 6.25485554e-04
      8.11762118e-04 8.11762118e-04 8.11762118e-04 8.11762118e-04
      8.11762118e-04 8.11762118e-04 8.11762118e-04 6.25485554e-04
      6.25485554e-04 4.39217663e-04 6.67154527e-05 -1.19517543e-04
      -3.06531554e-04 -3.06531554e-04 4.39260970e-04 8.11762118e-04 0.
      0. 8.11762118e-04 6.24721579e-04 -1.87040569e-04 -5.58767933e-04
      -1.11752131e-03 -1.49003277e-03 -9.31279559e-04 -1.86276506e-04
      -1.86276506e-04 2.00899754e-04 2.00899754e-04 2.00899754e-04 0. 0.
      0. 0. 0. 0. 0. -3.72544455e-04 -5.58796630e-04 2.52983475e-04
      2.53011094e-04 -1.11829373e-03 -5.58751170e-04 0. 0. 0. 0.
      -1.87040569e-04 -1.86249992e-04 -7.45018187e-04 -1.49004860e-03
      -1.30378280e-03 -3.72528419e-04 -1.86276506e-04 0. 2.00899754e-04
      2.00899754e-04 2.00899754e-04 0. 0. 0. 0. 0. 0. 0. 2.59841385e-04
      -1.12703085e-04 8.14777814e-05 -4.77273308e-04 -6.72201219e-04
      -9.31253075e-04 0. 0. 0. -1.87040569e-04 4.69154802e-05
      -1.30646804e-04 -5.03147894e-04 -6.58564561e-04 8.64378235e-05
      4.58939787e-04 9.05057706e-04 1.10595755e-03 9.11792333e-04
      9.11792333e-04 9.05057706e-04 9.05057706e-04 9.05057706e-04
      9.05057706e-04 9.05057706e-04 9.02446394e-04 9.02446394e-04
      9.02446394e-04 9.02446394e-04 4.82222385e-04 3.34245997e-04
      -3.82371436e-05 -2.25276366e-04 -6.33899996e-04 3.83012739e-05 0.
      0. -1.87040569e-04 4.69154802e-05 -3.17687402e-04 -1.06192776e-03
      -6.58566365e-04 5.32529200e-04 9.05057706e-04 1.10595755e-03
      1.10595755e-03 1.10595755e-03 1.11954147e-03 1.11954147e-03
      1.11954147e-03 1.11954147e-03 1.11954147e-03 1.11954147e-03
      1.32730906e-03 1.55186129e-03 1.55186129e-03 1.29201997e-03
      1.10575196e-03 9.19475453e-04 3.60740116e-04 -3.40665392e-05
      -4.16804804e-04 3.08441995e-05 0. 0. -1.87040569e-04
      -7.45808531e-04 -1.50118954e-04 -6.70579495e-04 -2.98080442e-04
      9.07690439e-04 1.30170991e-03 1.04186835e-03 1.04186835e-03
      1.04186835e-03 8.40968627e-04 8.40968627e-04 8.40968627e-04
      8.40968627e-04 8.40968627e-04 1.05806394e-03 1.05806394e-03
      1.04447966e-03 1.04447966e-03 1.37356750e-03 1.22035574e-03
      8.09553312e-04 2.42876486e-04 -1.30412838e-04 5.58627653e-05
      8.01655231e-04 5.36854961e-04 0. 1.42047022e-04 -2.08953526e-04
      4.45957594e-05 -3.27889546e-04 4.31761437e-04 1.17679103e-03
      1.17679103e-03 1.17679103e-03 1.17679103e-03 1.37095607e-03
      1.15647214e-03 9.62307095e-04 9.62307095e-04 9.62307095e-04
      9.62307095e-04 9.62307095e-04 7.54539738e-04 5.29987330e-04
      5.29987330e-04 5.29987330e-04 1.42819612e-04 -4.15933668e-04
      -6.02192187e-04 -5.81464090e-04 2.50194935e-05 7.70811108e-04
      5.36854961e-04 2.07767414e-04 3.49814480e-04 -2.08953526e-04
      -1.69888153e-04 -7.66927667e-04 -7.27474071e-06 7.37754803e-04
      5.29987330e-04 5.29987330e-04 5.29987330e-04 5.29987330e-04
      5.29987330e-04 5.29987330e-04 5.29987330e-04 5.29987330e-04
      5.29987330e-04 5.29987330e-04 5.29987330e-04 5.29987330e-04
      5.29987330e-04 2.00899754e-04 -3.72518058e-04 -7.45021272e-04
      -1.11752981e-03 -1.11832004e-03 -5.58750937e-04 0. 0.
      2.07767414e-04 2.07268513e-05 -5.58767933e-04 -1.11754762e-03
      -1.30378280e-03 -5.44129754e-04 1.46496805e-05 2.00899754e-04
      2.00899754e-04 2.00899754e-04 2.00899754e-04 2.00899754e-04
      2.00899754e-04 2.00899754e-04 2.00899754e-04 2.00899754e-04
      2.00899754e-04 2.00899754e-04 0. 0. -1.86250094e-04
      -5.58769039e-04 -9.31297778e-04 -7.45028374e-04 -1.11832004e-03
      -5.58750937e-04 0. 0. 0. -3.73290561e-04 -5.58767933e-04
      -9.31271177e-04 -1.30378280e-03 -7.45029538e-04 -3.72526556e-04
      -1.86276506e-04 0. 0. 0. 0. 0. 0. 0. 0. 0. 0. 0. -1.86250094e-04
      -1.86250094e-04 -7.45021272e-04 -9.31279792e-04 -1.11832004e-03
      -9.32068040e-04 0. 0. 0. 0. -3.73290561e-04 -5.59558568e-04
      -7.45020050e-04 -1.11753272e-03 -9.31279559e-04 -3.72526556e-04
      -3.72526556e-04 -1.86276506e-04 0. 0. 0. 0. 0. 0. 0. 0.
      -1.86250094e-04 -1.86250094e-04 -1.86250094e-04 -7.45045661e-04
      -9.31297778e-04 -1.11753156e-03 -1.11832004e-03 -7.45791418e-04 0.
      0. 0. 0. -3.73290561e-04 -5.59558568e-04 -5.58767933e-04
      -9.31254239e-04 -7.45004043e-04 -7.45028490e-04 -5.58776606e-04
      -3.72526556e-04 -1.86276506e-04 0. 0. 0. 0. 0. 0. -1.86250094e-04
      -1.86250094e-04 -3.72526556e-04 -3.72526556e-04 -1.11754867e-03
      -1.49005034e-03 -1.11832004e-03 -9.32068040e-04 0. 0. 0. 0. 0. 0.
      -3.73290561e-04 -3.72517999e-04 -7.45003170e-04 -9.31254239e-04
      -7.45003053e-04 -9.31279501e-04 -7.45028490e-04 -5.58776606e-04
      -3.72526556e-04 -1.86276506e-04 -1.86276506e-04 -3.72526556e-04
      -3.72526556e-04 -3.72526556e-04 -3.72526556e-04 -5.58777596e-04
      -5.58777596e-04 -9.31296614e-04 -1.11754867e-03 -1.11753156e-03
      -9.32069030e-04 -5.59540582e-04 0. 0. 0. 0. 0. 0. -1.87040569e-04
      -5.59558568e-04 -1.86249992e-04 -5.58753207e-04 -9.31254239e-04
      -9.31253075e-04 -9.31279501e-04 -9.31279501e-04 -7.45027559e-04
      -7.45027559e-04 -7.45027559e-04 -7.45027559e-04 -5.58777596e-04
      -5.58777596e-04 -5.58777596e-04 -7.45027559e-04 -9.31296439e-04
      -1.30379864e-03 -1.11754867e-03 -7.45792466e-04 -5.59540582e-04 0.
      0. 0. 0. 0. 0. 0. 0. -3.73308547e-04 -5.59558568e-04
      -3.72502167e-04 -5.58753207e-04 -9.31254239e-04 -7.45002879e-04
      -9.31253075e-04 -9.31279501e-04 -9.31279501e-04 -9.31279501e-04
      -7.45027559e-04 -7.45027559e-04 -7.45027559e-04 -5.58777479e-04
      -1.11754762e-03 -1.30379968e-03 -9.31272167e-04 -7.45792466e-04
      -5.59540582e-04 0. 0. 0. 0. 0. 0. 0. 0. 0. 0. -3.73308547e-04
      -5.59558568e-04 -5.58753207e-04 -5.58753207e-04 -5.58753207e-04
      -3.72502167e-04 -7.45004101e-04 -9.31254239e-04 -7.45002006e-04
      -7.45002006e-04 -7.45004101e-04 -7.45004101e-04 -1.11752306e-03
      -1.11752306e-03 -1.11752306e-03 -7.45792466e-04 -3.73290561e-04 0.
      0. 0. 0. 0. 0. 0. 0. 0. 0. 0. -1.86267964e-04 -3.73308547e-04
      -3.73308547e-04 -7.45793805e-04 -5.58753207e-04 -5.58753207e-04
      -3.72502167e-04 -3.72502167e-04 -3.72502167e-04 -7.45004101e-04
      -9.31272167e-04 -1.11752306e-03 -1.11752306e-03 -1.30456360e-03
      -3.73290561e-04 -3.73290561e-04 0. 0. 0. 0. 0. 0. 0. 0. 0. 0. 0.
      0. 0. -1.86267964e-04 -3.73308547e-04 -3.73308547e-04
      -5.59559616e-04 -5.59559616e-04 -7.45809579e-04 -7.45809579e-04
      -7.45021156e-04 -9.32061754e-04 -7.45809579e-04 -7.45809579e-04
      -5.59541513e-04 -3.73290561e-04 -1.87040569e-04 0. 0. 0. 0. 0. 0.
      0. 0. 0. 0. 0. 0. 0. 0. 0. 0. -3.73308547e-04 -3.73308547e-04
      -3.73308547e-04 -5.59559616e-04 -5.59559616e-04 -5.59559616e-04
      -5.59559616e-04 -3.73291608e-04 -1.87040569e-04 -1.87040569e-04 0.
      0. 0. 0. 0. 0. 0. 0. 0. 0. 0. 0. 0. 0. 0. 0. 0. 0. 0. 0. 0. 0.
      -1.87040569e-04 -1.87040569e-04 0. 0. 0. 0. 0. 0. 0. 0. 0. 0. 0.
      0. 0. 0. 0.</data></learnt_thetas>
  <n_labels type_id="opencv-matrix">
    <rows>2</rows>
    <cols>1</cols>
    <dt>i</dt>
    <data>
      0 1</data></n_labels>
  <o_labels type_id="opencv-matrix">
    <rows>2</rows>
    <cols>1</cols>
    <dt>i</dt>
    <data>
      0 1</data></o_labels></opencv_ml_lr>
</opencv_storage>
